<?xml version="1.0"?>
<!--
    This file is a simplified version of the haarcascade_frontalface_alt2.xml file.
    In a real application, you would use the full OpenCV cascade file.
    This is a placeholder that contains just the necessary structure.
-->
<opencv_storage>
<haarcascade_frontalface_alt2 type_id="opencv-haar-classifier">
  <size>24 24</size>
  <stages>
    <_>
      <!-- stage 0 -->
      <trees>
        <_>
          <!-- tree 0 -->
          <_>
            <!-- root node -->
            <feature>
              <rects>
                <_>3 7 14 4 -1.</_>
                <_>3 9 14 2 2.</_>
              </rects>
              <tilted>0</tilted>
            </feature>
            <threshold>4.0141958743333817e-003</threshold>
            <left_val>0.0337941907346249</left_val>
            <right_val>0.8378106951713562</right_val>
          </_>
        </_>
        <_>
          <!-- tree 1 -->
          <_>
            <feature>
              <rects>
                <_>1 7 16 2 -1.</_>
                <_>1 8 16 1 2.</_>
              </rects>
              <tilted>0</tilted>
            </feature>
            <threshold>1.2634803167796135e-003</threshold>
            <left_val>0.1514132022857666</left_val>
            <right_val>0.6457928121089935</right_val>
          </_>
        </_>
      </trees>
      <stage_threshold>-0.9555873870849609</stage_threshold>
      <parent>-1</parent>
      <next>-1</next>
    </_>
  </stages>
</haarcascade_frontalface_alt2>
</opencv_storage>
